digraph Tree {
node [shape=box, style="filled, rounded", color="black", fontname=helvetica] ;
edge [fontname=helvetica] ;
0 [label="Age <= 6.5\ngini = 0.482\nsamples = 714\nvalue = [424, 290]\nclass = Died", fillcolor="#e5813951"] ;
1 [label="Age <= 0.96\ngini = 0.418\nsamples = 47\nvalue = [14, 33]\nclass = Survived", fillcolor="#399de593"] ;
0 -> 1 [labeldistance=2.5, labelangle=45, headlabel="True"] ;
5 [label="gini = 0.0\nsamples = 7\nvalue = [0, 7]\nclass = Survived", fillcolor="#399de5ff"] ;
1 -> 5 ;
6 [label="Age <= 2.5\ngini = 0.455\nsamples = 40\nvalue = [14, 26]\nclass = Survived", fillcolor="#399de576"] ;
1 -> 6 ;
7 [label="gini = 0.498\nsamples = 17\nvalue = [9, 8]\nclass = Died", fillcolor="#e581391c"] ;
6 -> 7 ;
8 [label="gini = 0.34\nsamples = 23\nvalue = [5, 18]\nclass = Survived", fillcolor="#399de5b8"] ;
6 -> 8 ;
2 [label="Age <= 63.5\ngini = 0.474\nsamples = 667\nvalue = [410, 257]\nclass = Died", fillcolor="#e581395f"] ;
0 -> 2 [labeldistance=2.5, labelangle=-45, headlabel="False"] ;
3 [label="Age <= 47.5\ngini = 0.476\nsamples = 654\nvalue = [398, 256]\nclass = Died", fillcolor="#e581395b"] ;
2 -> 3 ;
9 [label="gini = 0.471\nsamples = 578\nvalue = [358, 220]\nclass = Died", fillcolor="#e5813962"] ;
3 -> 9 ;
10 [label="gini = 0.499\nsamples = 76\nvalue = [40, 36]\nclass = Died", fillcolor="#e5813919"] ;
3 -> 10 ;
4 [label="Age <= 68.0\ngini = 0.142\nsamples = 13\nvalue = [12, 1]\nclass = Died", fillcolor="#e58139ea"] ;
2 -> 4 ;
11 [label="gini = 0.0\nsamples = 6\nvalue = [6, 0]\nclass = Died", fillcolor="#e58139ff"] ;
4 -> 11 ;
12 [label="gini = 0.245\nsamples = 7\nvalue = [6, 1]\nclass = Died", fillcolor="#e58139d4"] ;
4 -> 12 ;
}