digraph Tree {
node [shape=box, style="filled, rounded", color="black", fontname=helvetica] ;
edge [fontname=helvetica] ;
0 [label="Age <= 6.5\ngini = 0.473\nsamples = 891\nvalue = [549, 342]\nclass = Died", fillcolor="#e5813960"] ;
1 [label="Age <= 0.96\ngini = 0.431\nsamples = 51\nvalue = [16, 35]\nclass = Survived", fillcolor="#399de58a"] ;
0 -> 1 [labeldistance=2.5, labelangle=45, headlabel="True"] ;
2 [label="gini = 0.0\nsamples = 7\nvalue = [0, 7]\nclass = Survived", fillcolor="#399de5ff"] ;
1 -> 2 ;
3 [label="Age <= 2.5\ngini = 0.463\nsamples = 44\nvalue = [16, 28]\nclass = Survived", fillcolor="#399de56d"] ;
1 -> 3 ;
4 [label="gini = 0.498\nsamples = 17\nvalue = [9, 8]\nclass = Died", fillcolor="#e581391c"] ;
3 -> 4 ;
5 [label="gini = 0.384\nsamples = 27\nvalue = [7, 20]\nclass = Survived", fillcolor="#399de5a6"] ;
3 -> 5 ;
6 [label="Age <= 26.5\ngini = 0.464\nsamples = 840\nvalue = [533, 307]\nclass = Died", fillcolor="#e581396c"] ;
0 -> 6 [labeldistance=2.5, labelangle=-45, headlabel="False"] ;
7 [label="Age <= 24.25\ngini = 0.431\nsamples = 397\nvalue = [272, 125]\nclass = Died", fillcolor="#e581398a"] ;
6 -> 7 ;
8 [label="gini = 0.48\nsamples = 265\nvalue = [159, 106]\nclass = Died", fillcolor="#e5813955"] ;
7 -> 8 ;
9 [label="gini = 0.246\nsamples = 132\nvalue = [113, 19]\nclass = Died", fillcolor="#e58139d4"] ;
7 -> 9 ;
10 [label="Age <= 63.5\ngini = 0.484\nsamples = 443\nvalue = [261, 182]\nclass = Died", fillcolor="#e581394d"] ;
6 -> 10 ;
11 [label="gini = 0.487\nsamples = 430\nvalue = [249, 181]\nclass = Died", fillcolor="#e5813946"] ;
10 -> 11 ;
12 [label="gini = 0.142\nsamples = 13\nvalue = [12, 1]\nclass = Died", fillcolor="#e58139ea"] ;
10 -> 12 ;
}